<?xml version="1.0"?>
<opencv_storage>
<cascade>
  <stageType>BOOST</stageType>
  <featureType>HAAR</featureType>
  <height>64</height>
  <width>64</width>
  <stageParams>
    <boostType>GAB</boostType>
    <minHitRate>9.9500000476837158e-01</minHitRate>
    <maxFalseAlarm>5.0000000000000000e-01</maxFalseAlarm>
    <weightTrimRate>9.4999998807907104e-01</weightTrimRate>
    <maxDepth>1</maxDepth>
    <maxWeakCount>100</maxWeakCount></stageParams>
  <featureParams>
    <maxCatCount>0</maxCatCount>
    <featSize>1</featSize>
    <mode>BASIC</mode></featureParams>
  <stageNum>9</stageNum>
  <stages>
    <!-- stage 0 -->
    <_>
      <maxWeakCount>2</maxWeakCount>
      <stageThreshold>-3.6527492105960846e-02</stageThreshold>
      <weakClassifiers>
        <_>
          <internalNodes>
            0 -1 5 -2.2075124084949493e-02</internalNodes>
          <leafValues>
            8.8207912445068359e-01 -7.0777201652526855e-01</leafValues></_>
        <_>
          <internalNodes>
            0 -1 2 4.8754727467894554e-03</internalNodes>
          <leafValues>
            -7.0778232812881470e-01 6.7124450206756592e-01</leafValues></_></weakClassifiers></_>
    <!-- stage 1 -->
    <_>
      <maxWeakCount>4</maxWeakCount>
      <stageThreshold>-4.2709851264953613e-01</stageThreshold>
      <weakClassifiers>
        <_>
          <internalNodes>
            0 -1 28 -2.3278780281543732e-02</internalNodes>
          <leafValues>
            8.0016118288040161e-01 -5.3208291530609131e-01</leafValues></_>
        <_>
          <internalNodes>
            0 -1 6 -3.0840633437037468e-02</internalNodes>
          <leafValues>
            7.4448937177658081e-01 -5.8330363035202026e-01</leafValues></_>
        <_>
          <internalNodes>
            0 -1 27 -3.8004596717655659e-04</internalNodes>
          <leafValues>
            -9.3853199481964111e-01 3.5029992461204529e-01</leafValues></_>
        <_>
          <internalNodes>
            0 -1 30 6.3930550822988153e-04</internalNodes>
          <leafValues>
            3.3798810839653015e-01 -8.4988993406295776e-01</leafValues></_></weakClassifiers></_>
    <!-- stage 2 -->
    <_>
      <maxWeakCount>5</maxWeakCount>
      <stageThreshold>-7.0461815595626831e-01</stageThreshold>
      <weakClassifiers>
        <_>
          <internalNodes>
            0 -1 35 -5.8936640620231628e-02</internalNodes>
          <leafValues>
            6.4949929714202881e-01 -5.3037381172180176e-01</leafValues></_>
        <_>
          <internalNodes>
            0 -1 0 -2.1522832103073597e-03</internalNodes>
          <leafValues>
            -8.1597375869750977e-01 4.2768311500549316e-01</leafValues></_>
        <_>
          <internalNodes>
            0 -1 24 5.7734347879886627e-02</internalNodes>
          <leafValues>
            -4.2157590389251709e-01 8.2298946380615234e-01</leafValues></_>
        <_>
          <internalNodes>
            0 -1 7 -1.3467391952872276e-02</internalNodes>
          <leafValues>
            6.4592063426971436e-01 -4.8484659194946289e-01</leafValues></_>
        <_>
          <internalNodes>
            0 -1 31 -5.4428586736321449e-04</internalNodes>
          <leafValues>
            -9.3458473682403564e-01 3.0449509620666504e-01</leafValues></_></weakClassifiers></_>
    <!-- stage 3 -->
    <_>
      <maxWeakCount>5</maxWeakCount>
      <stageThreshold>-5.4711681604385376e-01</stageThreshold>
      <weakClassifiers>
        <_>
          <internalNodes>
            0 -1 29 3.3468694891780615e-04</internalNodes>
          <leafValues>
            4.9714285135269165e-01 -8.2539683580398560e-01</leafValues></_>
        <_>
          <internalNodes>
            0 -1 16 -1.8788054585456848e-01</internalNodes>
          <leafValues>
            4.9797397851943970e-01 -6.6662043333053589e-01</leafValues></_>
        <_>
          <internalNodes>
            0 -1 26 5.1882948726415634e-02</internalNodes>
          <leafValues>
            -4.2291617393493652e-01 7.9047471284866333e-01</leafValues></_>
        <_>
          <internalNodes>
            0 -1 41 -7.9230591654777527e-03</internalNodes>
          <leafValues>
            8.3376908302307129e-01 -2.8832477331161499e-01</leafValues></_>
        <_>
          <internalNodes>
            0 -1 12 2.6232586242258549e-04</internalNodes>
          <leafValues>
            -6.6103816032409668e-01 4.9154695868492126e-01</leafValues></_></weakClassifiers></_>
    <!-- stage 4 -->
    <_>
      <maxWeakCount>5</maxWeakCount>
      <stageThreshold>-5.2847975492477417e-01</stageThreshold>
      <weakClassifiers>
        <_>
          <internalNodes>
            0 -1 23 -3.8621313869953156e-02</internalNodes>
          <leafValues>
            6.3554215431213379e-01 -4.2116630077362061e-01</leafValues></_>
        <_>
          <internalNodes>
            0 -1 21 -4.9749795347452164e-02</internalNodes>
          <leafValues>
            4.8643523454666138e-01 -5.3900480270385742e-01</leafValues></_>
        <_>
          <internalNodes>
            0 -1 8 -1.0109802708029747e-02</internalNodes>
          <leafValues>
            7.9407423734664917e-01 -3.2188779115676880e-01</leafValues></_>
        <_>
          <internalNodes>
            0 -1 15 -3.0977906659245491e-02</internalNodes>
          <leafValues>
            6.8501520156860352e-01 -4.0326175093650818e-01</leafValues></_>
        <_>
          <internalNodes>
            0 -1 48 -7.1967637632042170e-04</internalNodes>
          <leafValues>
            -9.2530757188796997e-01 3.4824541211128235e-01</leafValues></_></weakClassifiers></_>
    <!-- stage 5 -->
    <_>
      <maxWeakCount>7</maxWeakCount>
      <stageThreshold>-8.8276845216751099e-01</stageThreshold>
      <weakClassifiers>
        <_>
          <internalNodes>
            0 -1 33 8.9727656450122595e-04</internalNodes>
          <leafValues>
            4.6849942207336426e-01 -7.1653544902801514e-01</leafValues></_>
        <_>
          <internalNodes>
            0 -1 34 -1.1023517698049545e-02</internalNodes>
          <leafValues>
            8.5589635372161865e-01 -2.9799738526344299e-01</leafValues></_>
        <_>
          <internalNodes>
            0 -1 45 -3.7052305415272713e-03</internalNodes>
          <leafValues>
            7.7441328763961792e-01 -3.0478012561798096e-01</leafValues></_>
        <_>
          <internalNodes>
            0 -1 25 -6.8403338082134724e-04</internalNodes>
          <leafValues>
            -7.4598354101181030e-01 3.0309653282165527e-01</leafValues></_>
        <_>
          <internalNodes>
            0 -1 18 -1.0484004393219948e-02</internalNodes>
          <leafValues>
            4.0262693166732788e-01 -5.2060478925704956e-01</leafValues></_>
        <_>
          <internalNodes>
            0 -1 19 -1.7808301374316216e-02</internalNodes>
          <leafValues>
            4.2807468771934509e-01 -5.1483994722366333e-01</leafValues></_>
        <_>
          <internalNodes>
            0 -1 38 -3.5234808456152678e-04</internalNodes>
          <leafValues>
            -9.6815860271453857e-01 2.2597807645797729e-01</leafValues></_></weakClassifiers></_>
    <!-- stage 6 -->
    <_>
      <maxWeakCount>5</maxWeakCount>
      <stageThreshold>-1.0568071603775024e+00</stageThreshold>
      <weakClassifiers>
        <_>
          <internalNodes>
            0 -1 40 3.8822318310849369e-04</internalNodes>
          <leafValues>
            4.6277204155921936e-01 -6.9685041904449463e-01</leafValues></_>
        <_>
          <internalNodes>
            0 -1 42 -5.0343549810349941e-03</internalNodes>
          <leafValues>
            6.7983025312423706e-01 -3.3092749118804932e-01</leafValues></_>
        <_>
          <internalNodes>
            0 -1 43 -1.8876140529755503e-04</internalNodes>
          <leafValues>
            -8.9233934879302979e-01 2.7992388606071472e-01</leafValues></_>
        <_>
          <internalNodes>
            0 -1 14 -4.9891631351783872e-04</internalNodes>
          <leafValues>
            -6.8206268548965454e-01 2.6710131764411926e-01</leafValues></_>
        <_>
          <internalNodes>
            0 -1 3 -1.5902644008747302e-05</internalNodes>
          <leafValues>
            2.3317717015743256e-01 -7.8651303052902222e-01</leafValues></_></weakClassifiers></_>
    <!-- stage 7 -->
    <_>
      <maxWeakCount>8</maxWeakCount>
      <stageThreshold>-1.0283815860748291e+00</stageThreshold>
      <weakClassifiers>
        <_>
          <internalNodes>
            0 -1 46 2.2259744127950398e-06</internalNodes>
          <leafValues>
            -4.9707603454589844e-01 5.0573247671127319e-01</leafValues></_>
        <_>
          <internalNodes>
            0 -1 20 1.8184214830398560e-02</internalNodes>
          <leafValues>
            -4.4164371490478516e-01 5.0441598892211914e-01</leafValues></_>
        <_>
          <internalNodes>
            0 -1 4 -1.4996246900409460e-03</internalNodes>
          <leafValues>
            9.0739673376083374e-01 -2.8290054202079773e-01</leafValues></_>
        <_>
          <internalNodes>
            0 -1 44 -4.3063596240244806e-04</internalNodes>
          <leafValues>
            -8.3330023288726807e-01 2.9465791583061218e-01</leafValues></_>
        <_>
          <internalNodes>
            0 -1 47 -1.4356651809066534e-03</internalNodes>
          <leafValues>
            2.9958969354629517e-01 -7.6966023445129395e-01</leafValues></_>
        <_>
          <internalNodes>
            0 -1 36 6.0567352920770645e-03</internalNodes>
          <leafValues>
            -3.4471797943115234e-01 6.5772479772567749e-01</leafValues></_>
        <_>
          <internalNodes>
            0 -1 22 -2.9915181919932365e-02</internalNodes>
          <leafValues>
            8.1937664747238159e-01 -2.7158161997795105e-01</leafValues></_>
        <_>
          <internalNodes>
            0 -1 10 -1.9359067664481699e-04</internalNodes>
          <leafValues>
            3.4044030308723450e-01 -8.1382822990417480e-01</leafValues></_></weakClassifiers></_>
    <!-- stage 8 -->
    <_>
      <maxWeakCount>8</maxWeakCount>
      <stageThreshold>-6.7412215471267700e-01</stageThreshold>
      <weakClassifiers>
        <_>
          <internalNodes>
            0 -1 11 -5.7226314675062895e-04</internalNodes>
          <leafValues>
            -7.7033489942550659e-01 4.2265796661376953e-01</leafValues></_>
        <_>
          <internalNodes>
            0 -1 37 4.0107769891619682e-03</internalNodes>
          <leafValues>
            -3.3750176429748535e-01 6.5217483043670654e-01</leafValues></_>
        <_>
          <internalNodes>
            0 -1 1 -1.0073722805827856e-03</internalNodes>
          <leafValues>
            -8.5282230377197266e-01 2.7991399168968201e-01</leafValues></_>
        <_>
          <internalNodes>
            0 -1 32 -4.5712115243077278e-03</internalNodes>
          <leafValues>
            7.1247845888137817e-01 -3.1903424859046936e-01</leafValues></_>
        <_>
          <internalNodes>
            0 -1 17 -4.6540476381778717e-02</internalNodes>
          <leafValues>
            2.6508557796478271e-01 -8.0410051345825195e-01</leafValues></_>
        <_>
          <internalNodes>
            0 -1 39 -6.3528760802000761e-04</internalNodes>
          <leafValues>
            -8.8984197378158569e-01 2.1343223750591278e-01</leafValues></_>
        <_>
          <internalNodes>
            0 -1 9 -7.8906659036874771e-03</internalNodes>
          <leafValues>
            7.9938209056854248e-01 -3.0955362319946289e-01</leafValues></_>
        <_>
          <internalNodes>
            0 -1 13 1.5393598005175591e-03</internalNodes>
          <leafValues>
            3.2312348484992981e-01 -7.4383360147476196e-01</leafValues></_></weakClassifiers></_></stages>
  <features>
    <_>
      <rects>
        <_>
          0 0 1 64 -1.</_>
        <_>
          0 32 1 32 2.</_></rects>
      <tilted>0</tilted></_>
    <_>
      <rects>
        <_>
          0 0 30 4 -1.</_>
        <_>
          0 2 30 2 2.</_></rects>
      <tilted>0</tilted></_>
    <_>
      <rects>
        <_>
          0 0 64 12 -1.</_>
        <_>
          0 6 64 6 2.</_></rects>
      <tilted>0</tilted></_>
    <_>
      <rects>
        <_>
          0 1 62 1 -1.</_>
        <_>
          31 1 31 1 2.</_></rects>
      <tilted>0</tilted></_>
    <_>
      <rects>
        <_>
          0 27 2 21 -1.</_>
        <_>
          1 27 1 21 2.</_></rects>
      <tilted>0</tilted></_>
    <_>
      <rects>
        <_>
          0 27 24 37 -1.</_>
        <_>
          12 27 12 37 2.</_></rects>
      <tilted>0</tilted></_>
    <_>
      <rects>
        <_>
          0 29 22 35 -1.</_>
        <_>
          11 29 11 35 2.</_></rects>
      <tilted>0</tilted></_>
    <_>
      <rects>
        <_>
          0 35 12 29 -1.</_>
        <_>
          6 35 6 29 2.</_></rects>
      <tilted>0</tilted></_>
    <_>
      <rects>
        <_>
          0 42 8 22 -1.</_>
        <_>
          4 42 4 22 2.</_></rects>
      <tilted>0</tilted></_>
    <_>
      <rects>
        <_>
          0 45 15 10 -1.</_>
        <_>
          5 45 5 10 3.</_></rects>
      <tilted>0</tilted></_>
    <_>
      <rects>
        <_>
          0 62 34 2 -1.</_>
        <_>
          17 62 17 2 2.</_></rects>
      <tilted>0</tilted></_>
    <_>
      <rects>
        <_>
          0 62 64 2 -1.</_>
        <_>
          0 63 64 1 2.</_></rects>
      <tilted>0</tilted></_>
    <_>
      <rects>
        <_>
          1 60 47 4 -1.</_>
        <_>
          1 62 47 2 2.</_></rects>
      <tilted>0</tilted></_>
    <_>
      <rects>
        <_>
          2 0 48 1 -1.</_>
        <_>
          18 0 16 1 3.</_></rects>
      <tilted>0</tilted></_>
    <_>
      <rects>
        <_>
          3 58 52 6 -1.</_>
        <_>
          3 61 52 3 2.</_></rects>
      <tilted>0</tilted></_>
    <_>
      <rects>
        <_>
          5 21 27 29 -1.</_>
        <_>
          14 21 9 29 3.</_></rects>
      <tilted>0</tilted></_>
    <_>
      <rects>
        <_>
          6 14 58 50 -1.</_>
        <_>
          6 39 58 25 2.</_></rects>
      <tilted>0</tilted></_>
    <_>
      <rects>
        <_>
          7 0 26 64 -1.</_>
        <_>
          7 32 26 32 2.</_></rects>
      <tilted>0</tilted></_>
    <_>
      <rects>
        <_>
          19 5 6 36 -1.</_>
        <_>
          19 23 6 18 2.</_></rects>
      <tilted>0</tilted></_>
    <_>
      <rects>
        <_>
          19 42 21 18 -1.</_>
        <_>
          19 51 21 9 2.</_></rects>
      <tilted>0</tilted></_>
    <_>
      <rects>
        <_>
          22 0 25 24 -1.</_>
        <_>
          22 8 25 8 3.</_></rects>
      <tilted>0</tilted></_>
    <_>
      <rects>
        <_>
          22 8 20 42 -1.</_>
        <_>
          22 29 20 21 2.</_></rects>
      <tilted>0</tilted></_>
    <_>
      <rects>
        <_>
          24 23 20 14 -1.</_>
        <_>
          24 30 20 7 2.</_></rects>
      <tilted>0</tilted></_>
    <_>
      <rects>
        <_>
          25 41 29 22 -1.</_>
        <_>
          25 52 29 11 2.</_></rects>
      <tilted>0</tilted></_>
    <_>
      <rects>
        <_>
          27 33 28 30 -1.</_>
        <_>
          27 43 28 10 3.</_></rects>
      <tilted>0</tilted></_>
    <_>
      <rects>
        <_>
          28 0 15 8 -1.</_>
        <_>
          28 4 15 4 2.</_></rects>
      <tilted>0</tilted></_>
    <_>
      <rects>
        <_>
          28 3 36 36 -1.</_>
        <_>
          28 3 18 18 2.</_>
        <_>
          46 21 18 18 2.</_></rects>
      <tilted>0</tilted></_>
    <_>
      <rects>
        <_>
          30 0 23 2 -1.</_>
        <_>
          30 1 23 1 2.</_></rects>
      <tilted>0</tilted></_>
    <_>
      <rects>
        <_>
          30 43 20 20 -1.</_>
        <_>
          30 53 20 10 2.</_></rects>
      <tilted>0</tilted></_>
    <_>
      <rects>
        <_>
          33 0 30 1 -1.</_>
        <_>
          48 0 15 1 2.</_></rects>
      <tilted>0</tilted></_>
    <_>
      <rects>
        <_>
          33 0 23 2 -1.</_>
        <_>
          33 1 23 1 2.</_></rects>
      <tilted>0</tilted></_>
    <_>
      <rects>
        <_>
          38 0 12 4 -1.</_>
        <_>
          38 2 12 2 2.</_></rects>
      <tilted>0</tilted></_>
    <_>
      <rects>
        <_>
          41 17 1 39 -1.</_>
        <_>
          41 30 1 13 3.</_></rects>
      <tilted>0</tilted></_>
    <_>
      <rects>
        <_>
          42 0 10 6 -1.</_>
        <_>
          42 2 10 2 3.</_></rects>
      <tilted>0</tilted></_>
    <_>
      <rects>
        <_>
          42 18 3 26 -1.</_>
        <_>
          42 31 3 13 2.</_></rects>
      <tilted>0</tilted></_>
    <_>
      <rects>
        <_>
          43 18 20 46 -1.</_>
        <_>
          43 41 20 23 2.</_></rects>
      <tilted>0</tilted></_>
    <_>
      <rects>
        <_>
          52 27 12 20 -1.</_>
        <_>
          56 27 4 20 3.</_></rects>
      <tilted>0</tilted></_>
    <_>
      <rects>
        <_>
          52 28 12 9 -1.</_>
        <_>
          56 28 4 9 3.</_></rects>
      <tilted>0</tilted></_>
    <_>
      <rects>
        <_>
          55 3 5 4 -1.</_>
        <_>
          55 5 5 2 2.</_></rects>
      <tilted>0</tilted></_>
    <_>
      <rects>
        <_>
          57 3 7 8 -1.</_>
        <_>
          57 7 7 4 2.</_></rects>
      <tilted>0</tilted></_>
    <_>
      <rects>
        <_>
          58 3 5 4 -1.</_>
        <_>
          58 5 5 2 2.</_></rects>
      <tilted>0</tilted></_>
    <_>
      <rects>
        <_>
          58 15 6 38 -1.</_>
        <_>
          61 15 3 38 2.</_></rects>
      <tilted>0</tilted></_>
    <_>
      <rects>
        <_>
          58 18 6 20 -1.</_>
        <_>
          61 18 3 20 2.</_></rects>
      <tilted>0</tilted></_>
    <_>
      <rects>
        <_>
          59 2 3 4 -1.</_>
        <_>
          59 4 3 2 2.</_></rects>
      <tilted>0</tilted></_>
    <_>
      <rects>
        <_>
          59 13 4 6 -1.</_>
        <_>
          59 16 4 3 2.</_></rects>
      <tilted>0</tilted></_>
    <_>
      <rects>
        <_>
          60 13 4 36 -1.</_>
        <_>
          62 13 2 36 2.</_></rects>
      <tilted>0</tilted></_>
    <_>
      <rects>
        <_>
          60 60 4 3 -1.</_>
        <_>
          62 60 2 3 2.</_></rects>
      <tilted>0</tilted></_>
    <_>
      <rects>
        <_>
          61 26 3 38 -1.</_>
        <_>
          61 45 3 19 2.</_></rects>
      <tilted>0</tilted></_>
    <_>
      <rects>
        <_>
          62 2 2 14 -1.</_>
        <_>
          62 9 2 7 2.</_></rects>
      <tilted>0</tilted></_></features></cascade>
</opencv_storage>
